2 100
dog 0.018137 0.22924 0.032607 0.18718 0.39865 -0.11381 0.27321 0.29147 0.30972 0.15463 0.31234 -0.23501 -0.23822 -0.17127 0.12688 -0.015272 -0.12991 0.040389 -0.030046 0.1691 -0.32157 0.021856 0.2247 -0.35635 -0.026409 0.1531 -0.036246 -0.20345 0.024499 0.038646 0.30117 0.060861 -0.15557 0.034101 0.022355 -0.11766 0.0635 0.36203 -0.10555 -0.023731 0.12 0.17834 -0.24014 0.063134 -0.043285 -0.27125 -0.035226 -0.042425 0.33326 -0.040539 -0.112 0.0030477 0.13422 0.02602 0.22377 -0.13827 0.16471 0.18203 0.09876 -0.056231 0.27742 -0.38505 0.22383 0.045706 0.12676 -0.47242 0.19523 -0.044997 -0.36053 0.057759 -0.23157 0.27832 -0.22389 0.31554 0.14275 -0.36628 -0.3335 -0.2332 0.093878 -0.17543 -0.36459 -0.12891 0.048204 0.32223 0.033738 0.22984 -0.42335 0.087485 0.13525 -0.15413 0.2303 -0.23125 -0.055428 -0.40994 -0.23574 -0.1339 0.0024405 0.36219 -0.12582 -0.053345 
cat -0.085712 0.20293 0.005078 0.36437 0.45141 -0.20935 0.22475 0.30029 0.104 0.12362 0.40888 -0.010502 -0.16922 -0.16127 0.088836 -0.048489 -0.40923 0.10001 -0.099425 0.25301 -0.20636 0.11128 0.27344 -0.4965 0.046122 0.22589 0.075983 -0.12206 -0.15209 0.042129 0.33431 0.24387 0.088833 -0.1855 0.13038 0.069907 -0.05235 0.37235 0.11801 0.086494 -0.11299 0.056208 0.014765 0.19749 -0.43711 -0.11759 0.05157 -0.0026639 0.12028 0.05067 -0.14732 0.048996 0.27279 -0.32599 0.3248 -0.22471 0.089319 -0.10938 0.30472 -0.1989 0.43326 -0.27159 0.29828 -0.099433 0.094106 -0.24482 0.085682 0.03024 -0.50044 -0.12108 -0.32454 0.35395 -0.17289 0.21192 -0.092673 -0.0022913 -0.28543 -0.066242 0.3354 -0.356 -0.3067 0.038058 0.051859 0.22658 -0.03299 0.056905 -0.54266 0.26525 -0.0025319 -0.13543 0.30496 -0.19027 0.033194 -0.10206 -0.035271 -0.047195 -0.16711 0.55779 -0.05182 0.10825 
